<?xml version="1.0"?>
<opencv_storage>
<stage9>
  <maxWeakCount>9</maxWeakCount>
  <stageThreshold>-7.4387037754058838e-01</stageThreshold>
  <weakClassifiers>
    <_>
      <internalNodes>
        0 -1 460326 4.4152135960757732e-03</internalNodes>
      <leafValues>
        -6.5587735176086426e-01 7.5221240520477295e-01</leafValues></_>
    <_>
      <internalNodes>
        0 -1 730233 -7.4315230449428782e-06</internalNodes>
      <leafValues>
        6.6702401638031006e-01 -4.4071000814437866e-01</leafValues></_>
    <_>
      <internalNodes>
        0 -1 748896 -6.8581551313400269e-03</internalNodes>
      <leafValues>
        7.9645663499832153e-01 -4.0162011981010437e-01</leafValues></_>
    <_>
      <internalNodes>
        0 -1 92446 -1.5855104720685631e-04</internalNodes>
      <leafValues>
        -6.7664158344268799e-01 5.1230007410049438e-01</leafValues></_>
    <_>
      <internalNodes>
        0 -1 739456 -1.4927156735211611e-04</internalNodes>
      <leafValues>
        -7.5598472356796265e-01 4.3677651882171631e-01</leafValues></_>
    <_>
      <internalNodes>
        0 -1 170487 -1.9713732763193548e-04</internalNodes>
      <leafValues>
        1. -3.6448249220848083e-01</leafValues></_>
    <_>
      <internalNodes>
        0 -1 633309 7.4703959398902953e-05</internalNodes>
      <leafValues>
        -2.4391014873981476e-01 1.</leafValues></_>
    <_>
      <internalNodes>
        0 -1 268111 8.8889328253571875e-06</internalNodes>
      <leafValues>
        -3.3279719948768616e-01 7.8352016210556030e-01</leafValues></_>
    <_>
      <internalNodes>
        0 -1 616728 4.3066026410087943e-04</internalNodes>
      <leafValues>
        -3.6128368973731995e-01 8.3354717493057251e-01</leafValues></_></weakClassifiers></stage9>
</opencv_storage>
